digraph Tree {
node [shape=box, style="rounded", color="black", fontname=helvetica] ;
edge [fontname=helvetica] ;
0 [label="Gym / Fitness Center <= 0.0\nmse = 231095.9\nsamples = 64\nvalue = 2376.7"] ;
1 [label="French Restaurant <= 0.0\nmse = 150727.3\nsamples = 60\nvalue = 2303.3"] ;
0 -> 1 [labeldistance=2.5, labelangle=45, headlabel="True"] ;
2 [label="History Museum <= 0.0\nmse = 78277.5\nsamples = 52\nvalue = 2203.8"] ;
1 -> 2 ;
3 [label="Beer Bar <= 0.0\nmse = 52088.5\nsamples = 49\nvalue = 2161.5"] ;
2 -> 3 ;
4 [label="Motel <= 0.0\nmse = 33513.3\nsamples = 45\nvalue = 2119.6"] ;
3 -> 4 ;
5 [label="mse = 21122.8\nsamples = 44\nvalue = 2106.1"] ;
4 -> 5 ;
6 [label="mse = 0.0\nsamples = 1\nvalue = 3062.0"] ;
4 -> 6 ;
7 [label="Shoe Store <= 0.0\nmse = 4585.3\nsamples = 4\nvalue = 2658.0"] ;
3 -> 7 ;
8 [label="mse = 1320.6\nsamples = 3\nvalue = 2684.4"] ;
7 -> 8 ;
9 [label="mse = 0.0\nsamples = 1\nvalue = 2526.0"] ;
7 -> 9 ;
10 [label="Veterinarian <= 0.0\nmse = 30275.0\nsamples = 3\nvalue = 2854.8"] ;
2 -> 10 ;
11 [label="Laundry Service <= 0.0\nmse = 5482.7\nsamples = 2\nvalue = 2935.2"] ;
10 -> 11 ;
12 [label="mse = 0.0\nsamples = 1\nvalue = 2978.0"] ;
11 -> 12 ;
13 [label="mse = 0.0\nsamples = 1\nvalue = 2807.0"] ;
11 -> 13 ;
14 [label="mse = 0.0\nsamples = 1\nvalue = 2533.0"] ;
10 -> 14 ;
15 [label="Cocktail Bar <= 0.0\nmse = 177222.5\nsamples = 8\nvalue = 2886.3"] ;
1 -> 15 ;
16 [label="Nightclub <= 0.0\nmse = 35456.5\nsamples = 3\nvalue = 2357.0"] ;
15 -> 16 ;
17 [label="mse = 0.0\nsamples = 1\nvalue = 2169.0"] ;
16 -> 17 ;
18 [label="Chinese Restaurant <= 0.0\nmse = 225.0\nsamples = 2\nvalue = 2545.0"] ;
16 -> 18 ;
19 [label="mse = 0.0\nsamples = 1\nvalue = 2560.0"] ;
18 -> 19 ;
20 [label="mse = 0.0\nsamples = 1\nvalue = 2530.0"] ;
18 -> 20 ;
21 [label="Asian Restaurant <= 0.0\nmse = 77048.6\nsamples = 5\nvalue = 3098.0"] ;
15 -> 21 ;
22 [label="Playground <= 0.0\nmse = 3571.4\nsamples = 3\nvalue = 2964.9"] ;
21 -> 22 ;
23 [label="mse = 3.8\nsamples = 2\nvalue = 2918.6"] ;
22 -> 23 ;
24 [label="mse = 0.0\nsamples = 1\nvalue = 3042.0"] ;
22 -> 24 ;
25 [label="Latin American Restaurant <= 0.0\nmse = 16512.2\nsamples = 2\nvalue = 3630.5"] ;
21 -> 25 ;
26 [label="mse = 0.0\nsamples = 1\nvalue = 3759.0"] ;
25 -> 26 ;
27 [label="mse = 0.0\nsamples = 1\nvalue = 3502.0"] ;
25 -> 27 ;
28 [label="Exhibit <= 0.0\nmse = 53455.2\nsamples = 4\nvalue = 3550.3"] ;
0 -> 28 [labeldistance=2.5, labelangle=-45, headlabel="False"] ;
29 [label="Spa <= 0.0\nmse = 8933.6\nsamples = 3\nvalue = 3771.7"] ;
28 -> 29 ;
30 [label="Doctor's Office <= 0.0\nmse = 1806.2\nsamples = 2\nvalue = 3709.5"] ;
29 -> 30 ;
31 [label="mse = 0.0\nsamples = 1\nvalue = 3667.0"] ;
30 -> 31 ;
32 [label="mse = 0.0\nsamples = 1\nvalue = 3752.0"] ;
30 -> 32 ;
33 [label="mse = 0.0\nsamples = 1\nvalue = 3896.0"] ;
29 -> 33 ;
34 [label="mse = 0.0\nsamples = 1\nvalue = 3329.0"] ;
28 -> 34 ;
}