digraph Tree {
node [shape=box, style="rounded", color="black", fontname=helvetica] ;
edge [fontname=helvetica] ;
0 [label="Gym <= 0.1\nmse = 17391.7\nsamples = 39\nvalue = 2085.8"] ;
1 [label="Café <= 0.0\nmse = 14900.0\nsamples = 35\nvalue = 2102.5"] ;
0 -> 1 [labeldistance=2.5, labelangle=45, headlabel="True"] ;
2 [label="Fast Food Restaurant <= 0.1\nmse = 11806.5\nsamples = 33\nvalue = 2114.1"] ;
1 -> 2 ;
3 [label="mse = 8789.7\nsamples = 29\nvalue = 2130.6"] ;
2 -> 3 ;
4 [label="mse = 4602.5\nsamples = 4\nvalue = 1912.0"] ;
2 -> 4 ;
5 [label="Fast Food Restaurant <= 0.0\nmse = 9.0\nsamples = 2\nvalue = 1797.0"] ;
1 -> 5 ;
6 [label="mse = 0.0\nsamples = 1\nvalue = 1794.0"] ;
5 -> 6 ;
7 [label="mse = 0.0\nsamples = 1\nvalue = 1800.0"] ;
5 -> 7 ;
8 [label="Bowling Alley <= 0.0\nmse = 7719.0\nsamples = 4\nvalue = 1901.4"] ;
0 -> 8 [labeldistance=2.5, labelangle=-45, headlabel="False"] ;
9 [label="Coffee Shop <= 0.0\nmse = 3042.2\nsamples = 3\nvalue = 1937.8"] ;
8 -> 9 ;
10 [label="mse = 355.6\nsamples = 2\nvalue = 1907.3"] ;
9 -> 10 ;
11 [label="mse = 0.0\nsamples = 1\nvalue = 2029.0"] ;
9 -> 11 ;
12 [label="mse = 0.0\nsamples = 1\nvalue = 1756.0"] ;
8 -> 12 ;
}