digraph Tree {
node [shape=box, style="rounded", color="black", fontname=helvetica] ;
edge [fontname=helvetica] ;
0 [label="Gym <= 0.0\nmse = 339789.5\nsamples = 16\nvalue = 2726.4"] ;
1 [label="Sandwich Place <= 0.0\nmse = 45703.4\nsamples = 12\nvalue = 2418.2"] ;
0 -> 1 [labeldistance=2.5, labelangle=45, headlabel="True"] ;
2 [label="Theater <= 0.0\nmse = 7419.6\nsamples = 8\nvalue = 2285.9"] ;
1 -> 2 ;
3 [label="mse = 1256.4\nsamples = 7\nvalue = 2263.1"] ;
2 -> 3 ;
4 [label="mse = 0.0\nsamples = 1\nvalue = 2560.0"] ;
2 -> 4 ;
5 [label="Diner <= 0.0\nmse = 8677.9\nsamples = 4\nvalue = 2704.7"] ;
1 -> 5 ;
6 [label="mse = 3340.8\nsamples = 3\nvalue = 2739.0"] ;
5 -> 6 ;
7 [label="mse = 0.0\nsamples = 1\nvalue = 2533.0"] ;
5 -> 7 ;
8 [label="Italian Restaurant <= 0.0\nmse = 180230.6\nsamples = 4\nvalue = 3563.0"] ;
0 -> 8 [labeldistance=2.5, labelangle=-45, headlabel="False"] ;
9 [label="mse = 0.0\nsamples = 1\nvalue = 2567.0"] ;
8 -> 9 ;
10 [label="Thai Restaurant <= 0.0\nmse = 17377.0\nsamples = 3\nvalue = 3729.0"] ;
8 -> 10 ;
11 [label="mse = 807.4\nsamples = 2\nvalue = 3786.8"] ;
10 -> 11 ;
12 [label="mse = 0.0\nsamples = 1\nvalue = 3440.0"] ;
10 -> 12 ;
}