digraph Tree {
node [shape=box, style="rounded", color="black", fontname=helvetica] ;
edge [fontname=helvetica] ;
0 [label="Sandwich Place <= 0.0\nmse = 13721042182.9\nsamples = 18\nvalue = 660656.9"] ;
1 [label="Mexican Restaurant <= 0.0\nmse = 6088684966.6\nsamples = 9\nvalue = 593223.9"] ;
0 -> 1 [labeldistance=2.5, labelangle=45, headlabel="True"] ;
2 [label="Liquor Store <= 0.0\nmse = 1464277222.7\nsamples = 7\nvalue = 553326.7"] ;
1 -> 2 ;
3 [label="mse = 391015144.0\nsamples = 4\nvalue = 521954.0"] ;
2 -> 3 ;
4 [label="mse = 153776953.6\nsamples = 3\nvalue = 590974.0"] ;
2 -> 4 ;
5 [label="Korean Restaurant <= 0.0\nmse = 2390502294.2\nsamples = 2\nvalue = 702941.2"] ;
1 -> 5 ;
6 [label="mse = 0.0\nsamples = 1\nvalue = 674713.0"] ;
5 -> 6 ;
7 [label="mse = 0.0\nsamples = 1\nvalue = 787626.0"] ;
5 -> 7 ;
8 [label="Latin American Restaurant <= 0.0\nmse = 9472528153.5\nsamples = 9\nvalue = 752610.9"] ;
0 -> 8 [labeldistance=2.5, labelangle=-45, headlabel="False"] ;
9 [label="Ice Cream Shop <= 0.0\nmse = 1445338366.6\nsamples = 6\nvalue = 808343.9"] ;
8 -> 9 ;
10 [label="mse = 11624767.4\nsamples = 3\nvalue = 779482.8"] ;
9 -> 10 ;
11 [label="mse = 132809253.6\nsamples = 3\nvalue = 856445.7"] ;
9 -> 11 ;
12 [label="Department Store <= 0.0\nmse = 506991248.2\nsamples = 3\nvalue = 603989.7"] ;
8 -> 12 ;
13 [label="mse = 0.0\nsamples = 1\nvalue = 572346.0"] ;
12 -> 13 ;
14 [label="mse = 9495642.2\nsamples = 2\nvalue = 619811.5"] ;
12 -> 14 ;
}